{"input_size": 3, "hidden_size": 12, "output_size": 1, "weights_input_to_hidden": [[0.24662010726684683, 0.2705587027010696, -0.13320195445311372, -0.1315860830479508, 0.24452065676561272, 0.42255509563982, -0.37299058590476536, 0.30964563344148166, 0.05306058019345563, 0.14178017586347627, 0.18539340701213125, -0.4471318461318961], [0.023625665700102078, 0.21263596146532387, -0.22038352817972842, -0.25234574777141844, -0.3594371222511062, -0.08449452926045183, 0.10204332367675871, -0.4610227367290566, 0.08703427045264463, -0.2758786770824822, 0.1374408255108221, 0.37701771382338123], [-0.45426190320956517, 0.26779801845831286, -0.16580812557695904, -0.4418862439542471, 0.3648949173760217, 0.36840429127281404, -0.3851081636259055, 0.24144829059533834, 0.30813809981316015, 0.22063655637837298, -0.39535713062826394, 0.39221610966684844]], "weights_hidden_to_output": [[0.49038343892829506], [0.45350458009591044], [-0.332841589259985], [0.4008612369745622], [-0.3224006765270515], [0.09199439256745544], [-0.2424268632195026], [0.4413299225882692], [-0.14569827757899087], [0.5670817274112738], [0.22550167130204463], [0.437794820892784]], "biases_hidden": [-0.03010351392595334, -0.4089329424990432, -0.464263464236622, 0.003470141622476386, -0.2585064140201613, -0.08831791608498518, -0.2717560567539671, -0.28471431073895925, 0.3733774886403699, -0.19727925390669432, 0.2835229051381861, -0.16051728029563186], "biases_output": [0.294808513182629]}