{"input_size": 3, "hidden_size": 12, "output_size": 1, "weights_input_to_hidden": [[0.1681696946418207, 0.3589077582432923, 0.22709130825376544, 0.48817735176466964, -0.0018501761599688275, -0.3176751293305907, -0.17901380819333085, -0.015463727370191822, -0.4487335131775899, -0.32386981431272227, 0.46018067870184937, -0.02481537939970465], [0.12827259119408355, -0.026023295278261954, -0.002403889472198071, -0.07998873311158057, 0.16158524059784687, 0.4893357137603818, 0.4009261624590581, 0.06572439590715978, -0.44273305896088916, 0.38070446445658745, 0.1842146248500369, -0.16942825760434868], [0.2086593506260151, -0.09414126491894723, 0.03793374032336094, 0.45351263682329485, -0.39463952166225647, 0.23943147086118166, 0.30434686029700436, -0.4149806395963589, -0.05504629725592061, -0.5065737049233586, -0.15121226145181244, 0.05756668978349171]], "weights_hidden_to_output": [[-0.026701907158145632], [-0.24778856290058707], [0.5993197222765237], [0.2740377471702544], [0.3495260970080437], [-0.017142985679595647], [0.38712455473079976], [-0.3367507356447399], [0.46642126199508904], [-0.2519959252084126], [0.017871945939038656], [-0.0595023124804413]], "biases_hidden": [0.2828681647654313, 0.001450032385630018, 0.17808423587178035, -0.03419320609163956, -0.2459027297912838, -0.13465153809676977, -0.43280685869715174, -0.49449000388957476, -0.47082510638892927, 0.24739822062235406, -0.4112255512041697, 0.41582496497511295], "biases_output": [-0.12398945132356948]}