{"weights_input_to_hidden": [[0.176964537547455, 0.4397634380949112, 0.5630052284155339, -0.33096377319505815, -0.26429804037389937, -0.13553271020844138, 0.42663161313049164, 0.24288390666707402, 0.4737469083050969, 0.45191526167606083, -0.41900430542836814, 0.3965063239472675, -0.15119685600411567, -0.020660417308003314, 0.26091072951646094, -0.014978795189140885, 0.33519835877113474, -0.4600530867647134, -0.04528454818141553, -0.26422149669649236, 0.5490379417380882, -0.1668411850127608, 0.11377764230707942, 0.18203382185101802, 0.33449275703131454, -0.051477133774758224, 0.5869918307379459, -0.6116861422332852, 0.17595660329557739, 0.4049883006822849, -0.40496221308717767, 0.1169551426724125, -0.3832686929211985, 0.21588857029603606, -0.04452837034808513, -0.45398405964459937, 0.3074252027171114, 0.02040655339455196, -0.1744978619052859, 0.042017635234586494, 0.4207755478002268, 0.00023599615052351367, 0.31572735772190796, 0.1051242534535065, 0.32518887532888224, -0.07635780201691365, 0.15403275855273593, 0.06260786658442873, 0.12711454329416128, 0.30082600050913705, -0.45968788592470317, -0.3348050488453892, -0.23759666636036145, -0.10169793413722678, 0.08059731085100079, 0.22263920160989553, -0.4430285307969741, 0.033873364618447074, 0.01724580479314434, 0.2068950910755622, -0.36985305072278674, 0.4975595913597125, -0.2743176853493855, -0.2504232634335819, 0.4486349627598975, 0.40885194562533744, -0.2704596850077178, -0.5000334019512908, 0.28994990561344997, 0.47229936350323587, 0.114373258747723, 0.03736200968678868, -0.40596371505738343, -0.02991345362450068, -0.26981471768855725, 0.036077353519813525, -0.4905147123676188, -0.07185668793941166, 0.4215367465497423, -0.2016915219717268, -0.09331326023908679, -0.07259303914007148, -0.42099503380173864, 0.21121109049235082, 0.44269926434023704, -0.32323371041391846, 0.14411448017248749, 0.25170696175418034, -0.07656254836967308, 0.28462033752955446, 0.039319898455059205, 0.4086887747320306, -0.16745363301917524, 0.4639901593176931, -0.4729255596072598, 0.2446918333394619, -0.1707207690830837, -0.3066173385687912, -0.36665773852604355, -0.1542870128988243, -0.3490072200613988, -0.2667703575367973, -0.4378427751610743, -0.3733689533777422, -0.3670003092901518, -0.2318130801845489, -0.03557678691984617, 0.26274370736547314, -0.017622121343361375, 0.3441372442305, -0.026868599680312074, -0.0046285412404360755, 0.5078882734973487, -0.018461127182296668, 0.10698603415909624, -0.22116817400578367, 0.34411620147324573, 0.2232329590967134, 0.1876870918931325, 0.047128098203277784, -0.16540124414560148, -0.20559076528292994, -0.055814827225518296, -0.4370512952876602, 0.1021352684264042, 0.023386019503407542, -0.06061525582867141, -0.28368987131789253, -0.06591580986987167, 0.25240099151493117, 0.4526843069265703, 0.30514115083823323, -0.13305886767255262, 0.4225544738332193, -0.4161844366934925, 0.1754463553717644, -0.012790416682133382, 0.1161715358685799, -0.010778724217731545, 0.5640339972416462, 0.39921371913294723, -0.12909637154931944, 0.07340787356952147, -0.1738605130198834, 0.1772562083695681, -0.476055115952695, 0.5154642554055984, 0.23046248844540204, -0.4861693128035009, -0.4024235294651182, -0.4451894297973215, 0.44121741165972417, -0.00029179237711712206, 0.6164961480703942, -0.36544059483587865, -0.31391124978179646, 0.18269194021090987, -0.3105297768912378, 0.16646842152289887, -0.5177751625213028, 0.516972931714353, -0.027929660718142377, -0.1287004220650191, 0.061005572901373664, -0.4370609028533537, 0.088359689476828, -0.18364087649194324, 0.331480336067239, -0.436673817482982, 0.04897343471016957, 0.47521099712553344, -0.0452769405385926, -0.3244653989273806, -0.34491109075140153, -0.13714274421579833, -0.17257250735735194, 0.31638941623647754, -0.00037232870832096477, 0.29584525114057936, -0.04225881360233032, -0.08510982074181332, -0.02645283281689422, 0.17734015440031506, 0.30221124905403374, 0.25228715935403534, -0.13387083885506088, -0.5787525903691263, 0.26282987017280346, -0.2558567710270043, 0.21821227706061438, 0.25810631075975454, 0.48865546924449577, 0.3027349253170201, -0.17927072566652005, 0.17202534558332844, -0.29196559433537494, -0.25615691667982393, -0.21897983032482016], [-1.4503646675827249, -0.9317595467325984, -0.6704771965189457, 0.30031241461737, 2.9477183757754153, 2.83953004227553, 0.10606224331625942, 1.2294710278277043, 0.015845983432571098, 1.5840848229856337, 0.4303669960306546, 2.6950280450690904, 2.1031000327917297, 2.1599775175534495, -0.5827784230051841, -1.1650868075936989, 0.8560837556886016, 2.9234900886098085, 1.6929811603393223, 1.234509110649799, 0.10588483567633653, 2.6846621289611776, 0.2924457506933118, -0.621769474495303, -0.6911845766577523, -0.5876024959407253, -0.8370453255491432, 1.0883036195996079, 1.7265461438548637, 2.079443687594182, 0.9319469061849015, 2.4267462711103174, 1.8217714519344492, 2.834957230112087, -0.1426795194020355, 3.027311100753736, 2.0613339143865796, -1.274407934719281, 1.864203833803914, 0.6981838317041622, 2.1669584145846756, -0.3806335600308518, -0.6326770846079954, 1.9632087690606632, 1.0436198377534507, 1.2149856240752797, 0.43447588866245124, 0.9805819267657536, -0.711078886363843, 0.18095710428030093, 2.753331403039101, 0.11887684148484073, 1.7809442178301196, -1.1913499089496724, 1.685899577033164, 2.290676318517623, 1.5233984860444696, -0.21819555949717426, 1.1079977156048346, -1.0057614337210028, 1.1647149571961735, -0.8397559957947527, 0.5908186041330085, 0.26971432314287624, 0.4278958851397754, 0.062370589293221985, -0.818853744016469, 1.219372745242076, 0.9113115552041128, 0.40836565252046386, 2.412076635605315, 0.3227283045957692, -0.2507376022996894, 0.06816899383191087, 0.19887469396450005, 2.1200828078304093, 2.220761077169401, -0.18780888445471158, 1.2604613528174742, -0.5932636126711391, -0.28451007168581527, -0.9343246183913578, 2.244871978866284, -1.3250856617715079, 0.1421647260055003, 1.3863736125691728, 0.4883904134777294, 2.7254787983490814, -0.7205675725791238, 1.9625440927827478, -0.04588711477312128, 1.121788946342964, 1.3491641175477722, 1.5167719632437997, 2.2794398724498075, 0.4283829591838669, -0.23439977480186086, -0.3451373147143378, 2.379331166521311, 1.2667447102824132, -0.4875649905042256, 1.3470972971391157, 0.8828968134045405, 1.0100226085817325, -0.18428726060043138, 0.7914410745915684, 2.357195593207192, 2.9425216546159936, -0.6236452803182443, 2.1782035834636098, 1.1793514208632236, 1.3382711863253334, -1.153400984292327, -1.439534909091633, 2.7679051388734552, -0.624200952787682, 1.2245090330990953, 2.4852114317876515, 0.4408841488911895, 0.03999543483138365, 1.0532661282129694, 2.564671279983521, 2.7727236769183445, 1.4016400842163632, 1.6837609994113885, 0.7188446593458871, 0.2456468502948999, 1.2653885835575538, -0.45010398392579964, 2.2227540439156104, 1.1595825889059632, 1.95272098839466, 1.8615152871452443, -0.7982301242375449, -0.7590036932153064, 0.12598953812031033, 1.5165230330200916, 0.42013848569821366, 0.7652896408077384, -1.075717419436109, 0.3170032201753743, 2.4630575276614337, 0.8250830984849142, -0.9865325545971363, 1.1379985492029276, 0.8129358147431047, 0.6465331723834656, -0.4885395533555584, 2.0483301907149665, 0.6264804319510876, 0.28792900229451823, -1.012545275874817, 2.0663814542981607, -0.08722916654714924, 0.8897865195894117, -0.29620954434557045, 1.058045621038448, 0.9159487150223804, 0.21348892788732243, 2.4447962450221574, -0.25429435879774176, 1.1240235269752754, 1.4436586483427614, 1.8065474165830373, 2.5174225491853734, 1.8329821467838932, -0.8961126058114094, -0.009276793357298911, 1.9836575543070485, -0.4468500155825267, -0.12601994417670648, 0.18337640131711583, -0.9224373179276038, -0.011647655419856557, 2.6389598935758065, -0.9092692142920855, 2.951817396823298, 1.334168774757101, 2.633284561008331, 1.96520227609213, 2.3233394572221635, 2.6248259173594026, 2.818352480853517, 0.6026588648791377, 1.6596721398140033, -0.6533271123397855, 1.3071911316610383, -0.028808171694210988, -0.3809005673235473, 2.473257872453497, 2.542130467584767, -0.25520203220250537, 1.4982765022477686, 0.5471392761153034, 0.2839733829244516, 0.6954614243580295, 1.2262895795343436, -0.9011907499423513], [-2.761656422177088, -0.9682818320995316, -0.8188350587867945, 1.104128211505275, 5.755761725081537, 5.447681999360935, -0.7859170332231417, 1.8347824052179025, -0.3277206821477495, 4.230912494459566, 0.2114723366737116, 4.991661202179061, 3.405036121665148, 3.918938535367089, -1.7845760993668947, -2.916982249114249, 2.7510711840186035, 5.650328938006401, 3.2448183244348288, 2.4635662194492793, -1.0953749082594944, 4.923189115487264, 1.3239067580987027, -2.1778933828383393, -0.863605147017192, -1.0779835212982452, -1.8744072576591653, 3.2067003074042306, 3.9187310384632847, 4.973633647607489, 2.191670609487717, 3.820215839059227, 2.442228296197969, 5.447600356644696, -0.8774766705945495, 5.584985442155958, 3.998443220272247, -2.7412078467543215, 4.489611212586184, 1.3565013835672632, 4.177498283699491, -0.9718166332268403, -0.5519422844959354, 3.1773842682605142, 1.432456286951737, 2.7112891030306345, 0.18577604371201514, 1.5039433316878215, -1.3586268842308766, -0.4312504740376309, 4.636542820843626, -0.4840090875776372, 2.984956108445789, -1.9441690512181822, 4.143294211042397, 3.81591026841824, 2.591054810024184, 0.8909522999981425, 2.1044374474601675, -2.4204573506912768, 2.9060037596037174, -1.2041866298411184, 1.2379256275061261, -0.8848899958268914, 1.1368363269791835, -0.2460319601902948, -1.104368693613253, 2.280695757869313, 1.4019350380649251, 0.3062644514008674, 5.024577697768246, 0.8786477144126701, -1.519689541269908, -0.3042887887356245, -0.6668477299301109, 4.310516202504508, 4.8346438647648515, -0.30565691471404016, 3.320319592518176, -0.9423865106090379, -0.6921735417453144, -1.7282288476861543, 3.696298773336646, -1.759700807696156, 0.13487563068821526, 3.2049592890646794, 1.2787099666995683, 5.390271203178369, -0.9700647895114498, 3.779435681881374, -1.0110777851381234, 2.941935348819251, 3.34985049956252, 2.9566670712797807, 5.4784775163488915, -0.02088548004464867, 0.5243230889192511, 0.02730755917065645, 3.9038836694940406, 1.8735715249185352, -1.264716050758315, 3.121387624959434, 0.8057770345245199, 1.5653941938299782, -0.7556921522458576, 1.4520222896440194, 4.754809511452439, 5.455477780118082, -0.6713096207120326, 4.821344946218239, 3.69704367216136, 3.1655308083045646, -1.9559540395630388, -2.4025398694729305, 5.576455450311737, -0.7556281294825302, 3.191398408337012, 5.114319822335157, 0.2885882823245884, -0.06044625328905848, 2.2975634042985402, 4.7629632343938315, 5.509786323559165, 2.059554759672572, 3.9373651930148235, 0.8399273925638069, -0.7731857252634992, 3.0150705378084774, -0.742966198473571, 5.870732393602689, 2.741851842172224, 4.200015843176832, 3.234008369193571, -2.375963302447094, -1.9756270020925601, -0.08545375233483829, 2.3694633383221184, 1.2783117251543303, 0.2674413343124636, -1.3167493207501466, 1.2368804423762052, 4.5281679039725455, 2.3675622881377825, -2.3610706519256137, 2.1552365869124928, 1.4124049873347615, -0.09076743686912131, 0.33527649073091886, 3.2757479521814252, 1.8377152309758595, 0.8180640960286694, -1.9203340428689972, 4.969608938705393, -0.5461342837226667, 1.2736492698814372, -1.2368618498094497, 1.537838089707712, 1.509120631619944, -0.27376516995585565, 5.067045834557902, -0.5762723162323269, 2.2616841294511523, 2.0930119469388235, 4.203816764373225, 4.73005492155422, 4.082423370030152, -1.7280994265272862, 0.27548124898446624, 4.874636088770368, -0.6480168290444093, -0.3402311042649165, -0.05108935445981353, -2.065429237183003, -0.5541910272170638, 4.839520145578431, -2.7430346652581936, 5.7904722059331, 3.6878774843010578, 4.030309249910075, 3.77063498605909, 3.9637596519216864, 4.450434419910869, 5.005796012956989, 2.069332173288369, 3.813269819610395, -1.024514597416327, 1.3912285107987385, -1.501543597295257, -1.0612844181806067, 5.049585537270598, 4.834637784904533, -0.555495811378043, 4.141070861876176, 0.6393593211970636, 1.409679124820083, 1.0954603985115468, 3.0925499407871353, -2.6231770374172254]], "weights_hidden_to_output": [[-0.5890476379859536], [-1.04431114490083], [-1.201334321468994], [0.3830936149092884], [0.4557979479879319], [0.4295598832783511], [-1.126806958269401], [-0.1967734931388527], [-0.9007218728086446], [0.2488398057353635], [-0.4868525935633103], [0.3231718758597733], [0.11094105047629489], [0.34167848279244123], [-0.48047703661200536], [-0.7711694953150761], [-0.02985270586379806], [0.43879454307570426], [0.5348571133134625], [0.10844185834488959], [-0.6068360897175609], [0.2611937660286056], [0.15283660858519932], [-0.7075350606181203], [-1.113157448791637], [-0.5620243895830265], [-1.188772155488042], [0.5984070786357298], [0.33415517977199743], [0.3290258739848345], [0.3144965541130264], [0.16361346282743816], [-0.005488281266365024], [0.4044451746587383], [-0.3600452440619015], [0.41027762400206663], [0.21658956659787795], [-0.5979896093938633], [0.20769633421918776], [0.02320105946606705], [0.16769077128186555], [-0.9468276408758354], [-1.0192929729718183], [0.058179575560942574], [-0.2663053625827526], [0.6148922005828054], [-0.42133881027853803], [0.20357495108609802], [-0.6583635840549374], [-0.6253214623666786], [0.43030696535152896], [-0.8454375108974597], [0.0500113628313619], [-0.5947286355848437], [0.22806327639406596], [0.29943408769426644], [0.37350942947797994], [-0.2037370365256391], [-0.07264085168083546], [-0.5541665423650428], [0.04406312871341947], [-0.9200326538113105], [-0.00010210564695077366], [-0.27479723572006154], [-0.35486112320361834], [-0.38646947029038436], [-0.3767905689240167], [-0.0765776920767262], [-0.09413824317966475], [-0.4746184501320501], [0.32928051400818453], [0.19903313043450369], [-0.5352594475938371], [-0.41033581024722093], [-0.8305654442471592], [0.31132976827856396], [0.33604721786608416], [-0.30833049761719156], [0.08941782743709674], [-0.6290542968934346], [-0.7140742294555182], [-0.5956007463402958], [0.34213853104196046], [-0.549793150110045], [-0.20650002672706988], [0.06227409045714345], [0.31408210142164367], [0.3794695043229761], [-0.7382650210465704], [0.14790927692278777], [-0.5110332103237983], [-0.040038240321250806], [0.37097959770800065], [-0.028555376179786696], [0.37027323643324045], [-0.6001106203102504], [-0.011334607048121259], [-0.4339797180968621], [0.26365954916941725], [0.30981060555652257], [-0.9482404064079345], [0.2570799022092863], [-0.15361821237970424], [0.11578840946779982], [-0.7825535383559012], [-0.2777754595615945], [0.27074004339754926], [0.41972484332045823], [-0.3872460355342479], [0.4600450114692826], [0.22734544439362334], [0.015755713205310457], [-0.9051272343479453], [-0.5217112977469601], [0.5155142793537073], [-0.9537693982352893], [0.11330175889160349], [0.35336995793378556], [-0.3140748543644155], [-0.4029421148363195], [0.4949644689695127], [0.29197780556161235], [0.5725381509161085], [0.333550344061051], [0.1583647350011472], [-0.39073234616540764], [-0.2921678004596068], [0.05713344101054408], [-0.30377355746416135], [0.4470978795630291], [-0.07064348462471326], [0.28173682621047097], [0.0718478112994398], [-0.5150656635019284], [-0.45138043601681266], [-0.39227620485344056], [0.07610404984657208], [-0.15521390475022948], [-0.5389876745448745], [-0.8360249212094493], [-0.308330184615785], [0.29358155336650016], [0.5510037539160928], [-0.9815243774862579], [-0.13901490064486327], [-0.04594612276716503], [-0.4851775878449271], [-0.5574659577909941], [0.36821039130786304], [-0.11969349788119885], [-0.0512046679982911], [-0.5971758502676282], [0.34278303033423696], [-0.9952904938088245], [-0.09031191254678654], [-0.36975702556829715], [0.17629800324903105], [-0.14388872388918234], [-0.5218675839834397], [0.33064282068572715], [-1.0671144573390596], [-0.07277485490133585], [-0.12115773196446662], [0.33952883180408017], [0.25985241006948795], [0.32533974963413276], [-0.3592217159045127], [-0.6377858178619059], [0.3721813766785055], [-0.7019237822113561], [-0.6316139066391022], [-0.7071226171944043], [-0.764502449140572], [-0.485746239044181], [0.27848811473719], [-0.8168278317301346], [0.5180760832600956], [0.028121710717438263], [0.22752054961064608], [0.22017135128414317], [0.25834716419626086], [0.34341600532053795], [0.44108761806367436], [0.45471397226232996], [0.10537063467354482], [-0.7300387821372828], [0.33435891196723283], [-1.150442527162812], [-0.876235298360433], [0.2933109142088747], [0.2763688681881857], [-1.0749163573692035], [0.2694093101336052], [-0.1715123398519229], [0.21265078129781556], [-0.1199942627895019], [0.03683684989469167], [-0.5390624435481777]], "biases_hidden": [-0.17185717448752136, 0.2891437761093917, 0.4188610108359577, -0.4272339972353987, -0.13458427282122243, 0.19612639604742033, 0.44120973995032975, 0.37337400651968355, 0.30491982386334826, 0.04655892140859019, 0.26544105699218745, 0.33075901734801005, 0.40301723427632286, -0.17542164568558272, -0.39591544440298543, 0.10445747137939454, 0.3300197780598563, 0.020057736565434636, -0.4329151358459127, 0.03935040314167537, -0.1538998390435019, 0.3529445057084146, -0.1713925119345041, -0.05237499282992586, 0.3819257863700387, -0.1667568097866402, 0.4271645088127093, -0.4623425352606152, -0.27804930119527593, 0.08355108211612927, -0.2178720318234486, 0.4955001322053799, 0.31305717134535804, 0.031736429150459045, -0.4614978576223847, 0.23707545821295528, 0.130711974451452, -0.18311879646532492, 0.3332611059163757, 0.003284512653190852, 0.35830077515640335, 0.2712098835585248, 0.3456585743664289, 0.3343522639270009, 0.4207013559581213, -0.4783715756273411, 0.09826144758978295, -0.17665725275186284, -0.11562630071527091, 0.01587221659026583, -0.24547128415059893, 0.23533205330794205, 0.4664656101711757, -0.08764122760105897, 0.3313147724056158, -0.12875853431557782, -0.29799146313545677, 0.03109511113820873, 0.3545770854149156, -0.2607203690833465, 0.30998009724659203, 0.14456606470142164, -0.002550231795895086, -0.49059714811442323, 0.42935396384691826, -0.2536368454982345, -0.36485832121660267, 0.3721895670902967, 0.12929477148209934, 0.2122445865092628, 0.4264972774588055, -0.33563517336031035, -0.15444963847894522, -0.2372077583317257, 0.2276498312042311, 0.009528761796910534, 0.19854695789890986, -0.45062455914702326, 0.2778802131896251, -0.08802725285665192, 0.06578900294753254, -0.042518154822556276, -0.19776706535340594, -0.3429898254004422, -0.35813620804918933, 0.33609718985920534, -0.3217381221402258, -0.121822509067116, 0.0328544618184794, 0.2070964990912595, -0.19211679588362363, 0.3031822822704333, -0.31022382657558367, 0.4720643478384893, 0.20558252389526654, 0.24626715780864206, -0.4261391960259905, -0.10730388989151218, 0.05580365181795677, -0.25517344985614243, 0.27230797785752847, -0.05959378579946162, 0.13955475945282436, -0.04193223044968819, 0.1308120309592612, 0.4576657700188975, 0.11556599329381134, 0.14069778050016757, -0.42429411283740603, -0.376039408135477, -0.09614163905252426, 0.4298881506435992, 0.20511793210460494, -0.4473599021776985, -0.4437209526298528, 0.24369842517413698, 0.1252186066470221, 0.2034179458580455, 0.005971003897374039, -0.17099065147607373, -0.387371001930939, 0.21731320357279316, -0.48567499741862885, -0.2423652754773501, 0.30434804961313267, 0.4781571405443361, -0.47767253640475427, 0.24334296665731237, -0.4602286797449172, 0.008370304352969704, 0.42100572658419944, -0.10367082179692055, 0.3361756953079009, -0.3504022485114362, -0.37131018139484984, -0.17176717324378799, -0.017795797362111676, 0.2022572479003918, 0.49320060117646924, 0.07945233283382291, 0.38306308874600314, -0.06812788968318906, -0.4788964807742109, 0.3003818647963673, 0.4780845171541668, 0.1317388459244273, 0.04583756664586092, 0.1181152032300764, -0.28486137051721383, 0.26006913957887445, -0.060945831049679655, -0.18935976446544067, 0.23847884958387067, 0.29403385750112043, 0.12817911715110508, -0.38268357425941246, -0.16098530670701838, 0.3180674623504889, -0.03907364418003878, 0.02699534841946538, 0.4434487458612435, 0.39730658564354726, 0.4527613320592877, -0.04358490998054343, 0.34607465866594034, -0.0981335945405537, -0.4583691493053135, 0.3933846694874601, 0.04832004583624028, 0.011726990621475752, 0.025504110964542304, 0.27188862633062894, 0.12289954828640404, -0.11778256382410712, 0.45488555737647673, 0.1392311023715902, -0.4354061673062207, 0.4986626070793313, 0.36908220792389645, -0.0506882728748832, 0.14388923094742512, -0.14577948317710754, -0.3736131979815135, -0.4114250347326943, 0.35950903392120526, 0.09203055898734769, -0.25898535421914826, 0.37414312090575963, 0.14322370847250565, 0.4076380093541354, 0.4028509600333533, 0.3935172514290616, -0.08288890515113212, 0.05090821148139513, -0.2417937878514277, 0.09388503809199866, 0.2041651061272154, -0.11857797616847518], "biases_output": [0.03719616423283453]}