{"weights_input_to_hidden": [[0.3613895796477742, -0.2613010258085694, 0.4869191155688488, 0.23342314856544694, -0.22363337099960534, 0.46632084810138036, 0.16281659991982228, -0.40117889806915796, -0.43088303518791377, -0.38834513991097735, -0.12491638974045152, 0.41017091070240835, 0.057279194663205385, -0.22443026038360214, -0.35137962146848367, -0.43365472257552656, -0.33955868098333986, 0.5163530500840862, 0.03517962222873987, 0.16412046943396663, 0.21953872723591708, 0.2021507378325786, -0.4042722406526898, -0.2530760793915041, -0.06559766666587445, 0.47125618713956163, 0.4798427694423881, -0.0756566578161513, -0.21896415496727095, 0.33721344599335434, -0.12213046051929816, -0.03793399636347463, 0.46454365234986467, 0.08513285152490217, -0.5031797256934686, -0.15688986851256026, -0.16701926305438947, -0.33785476718674623, -0.45497092617527296, 0.36514798495930223, 0.47598857057635335, -0.28152498111347307, 0.004602050693579709, -0.4543978638773958, -0.24452974547037837, 0.26323028924967723, 0.3161886748012681, 0.14244431217375678, 0.06703770922828464, -0.1648749609672789, -0.31544457686592076, 0.17008228763738648, -0.48047275269132556, 0.4013667811101518, 0.07138349446900777, 0.07263509728096183, 0.14230743795140469, 0.3977493090405202, 0.17236792061676232, -0.26635723400901207, 0.4424583051352452, -0.40083258802573013, 0.44709278810886405, -0.18652333257389925, -0.2716462650579469, -0.19819704008676192, -0.43824918567464155, -0.4767251771206035, -0.4213513891152616, 0.10749672058584679, -0.5125855782402813, 0.18852221266378186, -0.3124314730489512, -0.17444525199663544, 0.12170642923395211, 0.2092410736731003, 0.067767178667193, 0.2566020883462733, 0.1736459391859091, -0.3538181798054355, -0.44815332290992127, 0.011459572666204478, 0.36834603215372846, -0.1550163999047159, -0.4846715884964312, 0.22696755775519495, -0.2103416233487816, -0.43300558916260484, -0.15244178264928462, 0.03575923538348835, 0.009424468212908306, 0.23527596543289167, 0.1564657946811487, -0.36196113270797475, -0.2832771647375589, 0.40288675253509904, -0.04796859432553896, -0.11214155452955263, 0.4475595761149186, 0.16096018514762905, 0.3317515148358007, -0.18927626671693057, -0.09853995055749709, 0.47835685297897373, -0.1089883256325844, -0.25220567086071694, -0.08121904065388526, -0.35536764065867876, -0.213600461264762, 0.25997076725002427, 0.37490336015471315, -0.05103009886434631, -0.38942268965868204, -0.1678432945675597, -0.01596850393104803, -0.3278836143523544, -0.15963713084714723, -0.4845851764385829, -0.009312836545999117, 0.048228562459460396, -0.14359327050598586, 0.43645575289098365, -0.1972453831106052, -0.15228985743427725, 0.3030002702628269, 0.05370864455602318, 0.4871966492421161, 0.474434231495357, 0.42246572866524296, 0.24328663579986015, -0.3922758467794195, -0.08931751197819258, -0.024671181200757043, -0.3957812309760224, 0.1774369914802854, -0.0854948256045697, -0.05781837286185412, 0.45491966712552895, -0.36117338968504487, -0.24476539676327153, 0.07121492298701708, -0.01601632582389641, -0.30828527528066674, 0.4250403774576971, 0.11121082543998892, -0.28235036686349396, 0.2337125521086301, -0.22104369491284256, -0.33742786389894136, 0.05046497031642378, 0.22427632992179572, -0.44365856121574626, -0.2268464327044289, 0.32819693582060344, 0.12857795370677322, -0.0071572942840720235, -0.11630123111026051, 0.2075761569260348, 0.06844988787383428, 0.20664509758375124, -0.15377573203677983, 0.11071794734279895, 0.03248354127626593, 0.0005788071965359847, 0.4174442831494165, 0.3964652418686869, 0.2202394566500838, 0.01498661394741092, -0.2352545001978264, 0.4222606361307285, 0.4766021780432714, 0.4283108160588492, -0.36235920588402365, -0.2658480335932854, 0.42990289096343615, 0.3728078136704763, 0.06839273120774887, -0.2230402012263006, -0.2348969256041705, -0.19508698137215424, 0.2460304100233431, 0.07056014077173495, -0.13262959951089087, -0.007027884651656842, -0.05453005316350158, -0.4397540563982566, -0.43904644320671266, 0.40618807789398265, -0.4340027826316822, 0.37226979071388383, 0.16071610894567434, 0.24499626612863257, -0.05406722028698128, 0.18914566983917944, -0.0574113025860393, -0.45558040868678307, 0.14023499310694268, -0.1617185766041645], [-0.2358145617072589, 0.023702483368803033, -0.29998589159775396, -0.1688382977209984, -0.2644187201357289, -0.06654431879666987, -0.5024100520260524, -0.30134040382855615, -0.4356734356143648, 0.1337618671270288, 0.01626897431597903, -0.18970447835698145, 0.3283942090532947, -0.2986442470662367, -0.032533860182418224, -0.3745023936161595, 0.06612514976251534, 0.24835104602851446, 0.24726141497611573, 0.4453503614493199, -0.42664055817496543, -0.378546559429172, 0.05733180947947303, 0.39712864187812985, -0.12689616176726518, 0.17117808177370972, 0.029296575899576436, 0.41297428517432094, 0.05204955854659351, 0.1447611050190189, 0.09923426529219057, -0.2556897300054949, 0.3223584691065034, -0.22201517859445105, 0.10895267592957088, 0.33579969212645955, 0.11641085217158227, -0.2622733469088842, -0.31681247696067855, -0.35099862490681283, -0.1155914328358667, 0.17323977594510953, -0.37404294501560253, 0.0007344261475566765, 0.1490798899617914, -0.0454154499831183, 0.5133137290971648, -0.10750688855929935, 0.1176885339145937, 0.44795769402915747, 0.32614702399969925, 0.3660914415084347, -0.33496961562588634, 0.22418560711613666, 0.4744318720287867, 0.4355904745664068, -0.21692303617950107, -0.3812614323987366, 0.232565055232913, 0.2899719266670817, -0.2753505040208941, 0.17996970284470423, 0.48175225417505996, 0.0766774659512592, 0.0034474687955033407, -0.39320387618528235, -0.4568598103645701, -0.06227013121044506, -0.03921940307466049, 0.3909460785844229, -0.2898048080980376, 0.07683711134293926, -0.03483376172043405, 0.1148634144065112, -0.06177118898771694, -0.16320613758337538, -0.4806739970666369, 0.3468389695701079, -0.06169042636180595, -0.1396502229194294, 0.45573505276623577, -0.18619974929232117, 0.4308896044276029, 0.15009100987870191, -0.30621363231808085, 0.1484302658283503, 0.3690796974912454, -0.06962063454790446, 0.513810529783376, 0.4521804216793853, -0.20089668452107667, -0.3088439958362267, -0.3579113226474942, 0.20423802294220936, 0.43651153249287294, -0.43673433767932085, -0.16814221650640884, -0.08319450101500264, 0.0039034633635101285, 0.40155753014569245, 0.3326586312834536, 0.11495026371259938, -0.3351683793015428, 0.11744452696244538, -0.11485054816475299, -0.46394137045417727, 0.13479504846307608, -0.2587266332571245, -0.367440503685151, 0.28729719518279634, 0.29340831997706807, -0.42861011358387224, -0.1290347440571426, 0.32612810728365205, -0.490614231852415, -0.22002358034686048, -0.1399611049839411, -0.31216387450405864, 0.3194564860903586, -0.23258682770645867, -0.0965410038266907, -0.35692766869620624, 0.4512842664353709, -0.08440484078278145, 0.14300140234624092, -0.24539695284049798, -0.28361828268823575, -0.46647181362193885, 0.4293233452454578, 0.3632149116701954, 0.4159275607899027, -0.11731366417095035, 0.4795171049086453, 0.2854487664370334, 0.3737610217161783, 0.2202927681609031, -0.41420762448048787, -0.47515939584038314, -0.15847959184134178, 0.19272406145721, -0.10583834678809045, 0.3401414731974971, 0.38886283246233183, -0.2773059035248504, 0.12423032210784227, -0.20974896465694276, 0.04054162730805878, 0.1919710786980238, 0.43403719290846104, 0.13189664206015456, -0.38690812306680744, -0.08860565764338492, 0.3208484555213379, -0.3085101956403802, 0.4569990514731579, -0.1459112341637005, 0.3333359058472185, -0.3899933129994851, 0.0629216098912326, 0.4239300116161208, -0.03183188978621104, 0.3134485475705821, 0.1903210232437476, -0.1373395460565802, 0.515305706580384, 0.15781436258457596, 0.27872703492187123, -0.2256636725376574, -0.3562323334318259, 0.32448678383278357, 0.374270906111988, -0.05949657880161319, -0.3279598752385375, -0.4307198355829082, 0.4132974975017037, 0.001322195828786928, 0.2522102071955196, 0.40222444693750803, -0.19608610258347642, -0.402777835822008, 0.3324124349060348, -0.031098775212897566, 0.03664977500848258, -0.3294954855792259, 0.12122316453735374, 0.4244356091604336, 0.23140879954920954, 0.19280138760158286, 0.4081215765982577, 0.21979842298307564, -0.07084949703284033, -0.39934217716265186, -0.1886926792345923, -0.35800731267205244, 0.4508029112063347, 0.2882617708107958, -0.1970605408666833, 0.3103320657032671], [-0.3105799813261333, 0.14910266692998886, 0.07410728620711293, 0.008660870884114475, -0.1432274995012739, -0.30572602904136637, 0.36068295669104855, 0.09972269435941292, 0.3324446725007893, 0.4062010409209665, -0.19069494267147466, 0.3303519268950814, 0.30917357822137326, -0.12851251335309857, -0.11652581984671219, 0.2478544650088719, 0.3599786118947157, 0.4006731473048836, 0.2229237484418627, -0.21297395935183747, -0.315832078954023, -0.12019683305096182, 0.22476462429749064, -0.05999729891164971, 0.43667658715685925, -0.30293735851208276, -0.414387165437457, -0.027830442800386, 0.43945775704537454, -0.4017293416468153, 0.18557751000614234, -0.437909961219286, -0.05373548923681551, -0.5331491012299822, -0.5159058605519665, -0.4387382040908922, 0.4439266657648112, 0.1802846957258004, 0.13447210303640011, 0.064999055332876, -0.40470833107842746, 0.19566664187712013, 0.14191167740842103, 0.27351512117754295, 0.0033565365236705494, -0.22849538288879354, -0.1701011374294377, 0.3255765165750883, -0.4846937010142473, -0.3381003542840903, 0.17474758872425802, 0.5101528663371521, 0.33824313461979455, 0.45284641559931005, -0.3749099356199177, 0.1966121408594599, 0.180993800083531, -0.46214738810307326, -0.42809036381908455, 0.21202261831403682, 0.2925054823693854, 0.08803860434659488, 0.416699445426598, 0.15630862649165098, 0.44125473585718106, 0.2359102825928948, -0.4003718975755021, -0.3621812594557046, 0.4073848116415335, -0.36191738166643256, -0.010541870702380711, 0.43908171069170937, 0.2728077915334731, 0.09715509158043854, 0.3980492700819634, -0.12592618976607753, 0.414471939505172, 0.15170185479493703, 0.4377068496161585, 0.07899460925180234, 0.2399577781224335, -0.0801163095799945, 0.19006461759856225, -0.036505534849709066, -0.03890952391633021, -0.04034414527372167, -0.35573055468410925, 0.4952672811962656, 0.2614909048300679, -0.31363268629823576, 0.3205283055816518, 0.08247102851492544, 0.27760334368717116, 0.29107698957406614, -0.11750678003100068, -0.43562816687414163, 0.4715423638653964, -0.5119067637675239, -0.004915465799158996, -0.2906109117484358, 0.1251341470125591, 0.2980338771713312, -0.3877909321531116, -0.4211848676033611, 0.05598922385403342, 0.1038023600038892, -0.15744903289977888, 0.42795308097595786, -0.39092367957963003, -0.05641236593592606, -0.18431110009003474, 0.3934430696000614, 0.13863788337575392, 0.4906173946819492, 0.14808806451272596, -0.10080431958878348, 0.3139766289343362, 0.1854310715791207, -0.13927749885279836, -0.4332508536841225, -0.29158278703232166, 0.36965763730478735, 0.1908351902013093, 0.22609559187325323, 0.44097160125034757, 0.3831906036133323, 0.1464331450368255, -0.2491091088841025, -0.39493690836106315, -0.02931088249867996, -0.37084653099564685, -0.07911475755114082, 0.28806305928972326, 0.45257057980714915, -0.05135832075242356, -0.3767305547296721, -0.018643917017408, 0.10249056660565933, -0.06987056226790485, 0.08975749872632767, -0.29460608876782757, 0.4472176172507976, 0.009539749662978117, -0.0017875104124468707, 0.15748982105332124, -0.08413173448370179, 0.0768967581191299, 0.2905671058889273, 0.12909967520731958, 0.3551470930532531, -0.13178704723531037, 0.30387524608438166, 0.4411317038947764, -0.034387511271660336, -0.20218433782481454, -0.0019394154856497746, 0.3120956616693885, -0.16452856164979263, -0.2497530942627606, -0.3567792308549721, -0.09670999942226945, -0.06634898456750504, 0.3873904017926407, -0.18552266422831717, 0.11646124046980891, -0.33827485169508165, -0.36201469729379404, -0.3927697425935349, -0.19193166341697543, -0.3918656247172338, 0.30401391580471276, 0.24108925992545543, 0.30582596767235953, -0.210500742984415, 0.3702528458847786, -0.45471498473626043, -0.2976241302172007, -0.032505215952139156, -0.059720888424529585, -0.38694071248021594, -0.33095701317609133, -0.4647691732564677, -0.35602790317665267, 0.08594450147750955, 0.14986690150617976, 0.20641132113428362, 0.35923638207993164, 0.355638359502636, 0.35507028050777345, -0.05965997262320833, -0.44763137116130663, 0.17114661980989362, 0.28517600300568163, -0.3568658232775448, -0.09978851630413516, -0.4288739323918849, 0.10420264789281984, -0.05625907156747839]], "weights_hidden_to_output": [[0.1299232265649292], [0.6877172304567218], [0.3658483952526084], [-0.24013026739061122], [0.1116462462211219], [0.6677144298023048], [-0.07103263028062426], [-0.1439031850601182], [0.4528833335814608], [-0.22769189184807948], [0.21903927007216342], [-0.14965073065797968], [0.4115796823312256], [0.3080234075930836], [-0.3464347552331271], [0.19019611110255], [0.49266358991937526], [0.7462188158781733], [-0.052705324570379256], [0.07422211705157535], [0.25640690251477044], [0.5136760452030809], [0.5597746329553861], [0.03611328990444699], [0.25671825623981415], [0.3674847892509988], [0.4081911211141655], [0.7285893198009964], [0.7080144313541689], [-0.2685463049667097], [-0.28510433528342466], [0.1908019050668082], [0.10487305431222464], [-0.32981697737449023], [-0.3355704081866588], [0.10268793902411877], [0.5962469835307429], [-0.34917463041683255], [0.24396267897611945], [-0.2813091503505313], [-0.0804679980225049], [-0.08328409939679621], [0.6826462180985929], [-0.04304641496231276], [0.27385787926876226], [-0.029764480324804696], [0.567869843351708], [0.5335301330365161], [-0.33389967394646525], [0.5197553893875166], [0.299993570656407], [0.625681985163795], [-0.07925139747472384], [0.18240087989600964], [0.6204131688366114], [0.6079636392864831], [0.5523350696423096], [0.21626017416482524], [0.4254379806541383], [-0.16041812769274105], [0.5564744918606197], [-0.02781430069761237], [0.5644561028698363], [-0.10736946127916877], [0.4679091044892108], [0.332469030258176], [0.4724791855100343], [-0.21242676159085003], [-0.22213655731392867], [0.6374223995573789], [-0.27632104909468896], [-0.34837031793012146], [0.6304317238598451], [0.4110704124878724], [0.19021980191587637], [-0.18515497380739343], [0.06266214104446885], [-0.26127336508881804], [-0.11558487686995299], [0.5348736006502748], [0.0028621308500124433], [0.540975498271999], [0.3946789432850447], [0.23014244359149164], [-0.15652325926093733], [0.23496207141242745], [-0.21349836962132296], [0.4961304667121142], [0.5151429879977768], [0.2926406560134875], [0.020719668068180513], [0.19591459986714918], [0.6523924562112269], [-0.2039808534214646], [-0.2243021110650764], [-0.3401707971303985], [0.21362504960653575], [-0.33842037099303407], [-0.06333033973394991], [-0.019860910046491452], [-0.24489172908058668], [0.5220736034823849], [-0.30346166196148594], [-0.17497180622300426], [0.2326430109195693], [0.4579643291592313], [0.0510455372804317], [0.09557244489114729], [-0.19440712590645917], [-0.11248296129600888], [-0.16379411300187358], [0.5695485762008864], [-0.16043816422591847], [0.33135762278021375], [0.14851954772602707], [-0.13319948534756434], [0.5277185593071796], [-0.340957695360556], [0.5057188389247038], [0.5779611690134199], [0.39927154143437504], [0.5671317268949619], [-0.0030993482212953445], [0.13902312710406117], [-0.10926238950790797], [0.4450201251150186], [0.1107952993497798], [0.254269796030124], [0.7136567009420468], [0.11815225085501636], [0.40059173041542007], [0.5813380877492543], [-0.10260720918053706], [0.2743164132399707], [-0.1582018731089098], [0.48555016530005113], [-0.18488608279308189], [-0.1626622952566424], [-0.0014824524809453914], [-0.027829384893507836], [-0.3343972311978353], [-0.2919296323637908], [-0.2484369958923841], [0.30286163340962624], [0.6896355135829779], [-0.1660635046836832], [0.26505880903057816], [-0.18377448505508145], [0.5131249620467856], [-0.276456340982743], [0.5952814710511104], [-0.09462192953972068], [0.5173550902489243], [0.1673368360050101], [-0.18008739100175414], [-0.12182097968152268], [0.5312054060171669], [-0.10086435119172889], [-0.08953366145811632], [0.6191058108520444], [0.4607904675137876], [-0.35732042005637243], [-0.07246701605658284], [-0.26514395922177847], [0.6788412446393733], [0.12501662790678], [-0.24069576397598538], [0.3953993360531776], [0.4021999710501891], [0.28094738197830244], [0.44185856032024656], [0.3766010838619044], [-0.1194408280693474], [-0.1955855428863683], [0.5576311163045874], [0.3970244496009174], [-0.15508116871262803], [0.3818967725251352], [0.3802158401876236], [-0.025168486347516745], [-0.19100618954269968], [0.4040267347769946], [0.009820684348556775], [0.46774623650094216], [-0.2849170750897062], [0.16444355406017888], [-0.33207375658763505], [0.5275891615566737], [0.22220471207103668], [0.22931963580604628], [0.5894003306935061], [0.04574441973602907], [-0.20671503865906432], [-0.1464986500267233], [0.32733183788832826], [0.23594790624388046], [0.2763543714905684], [0.2426573945943761]], "biases_hidden": [0.16713809205113828, 0.27368792284110055, -0.33850150241827637, 0.3068878816202607, -0.006687275751566579, 0.03334802956207472, -0.09873878995730867, -0.24770441194751613, 0.014361377406602815, -0.46301861464062777, -0.44150169911425197, 0.4053387189991673, 0.30965510781276506, 0.15114206101106054, -0.42237131833347974, -0.009053624850002828, -0.23598974923784222, 0.3411684722280738, -0.04879504158108816, 0.2566348129238739, -0.2313860416021688, -0.15195834795457785, -0.1910712495446394, 0.1715987986862635, -0.25750956467030583, 0.478465482849287, 0.31680018007011823, 0.3290199190220161, 0.4701911439104868, 0.061634539066222294, 0.0719862634806635, 0.21342267155983352, -0.4924450463024127, -0.030595211967011093, -0.2639686919247378, 0.029619644089315056, 0.30597031510178163, -0.22479655441844304, 0.11448346633370976, -0.4736137443434131, -0.1021000926367246, -0.23999744661847033, 0.17162024932283682, 0.013129276938262935, 0.35787932628201247, 0.04172384735049561, -0.4345592468430677, 0.13155880752279447, -0.10154260858361208, 0.3638394583956348, 0.45862602478597525, 0.48894071021239405, 0.46912737773681656, 0.23021898341274483, 0.1931372282027587, 0.22591238888867404, 0.26778823001203333, -0.13847211517828129, -0.35173016202061924, 0.05793775479551477, -0.15252108663160535, 0.03080354586196432, -0.2992003235904406, -0.015565254438811849, -0.15662766449613552, -0.3080593994559552, 0.3592519051380203, -0.013181935408025258, 0.2128262378144714, 0.30694240219793767, 0.0417429576237861, -0.3603956044559723, 0.28499400805964237, -0.40692430781706945, -0.12445466209867673, -0.45900009410086196, 0.35192159983234483, 0.08799783120980476, 0.3583011964850831, 0.2291501106211239, 0.0632491457421136, 0.2675268626224371, 0.13816651276129588, -0.24309112178616832, 0.09937955971890833, -0.4478041431866546, -0.14425503537101692, 0.062031597180597586, -0.14848440639255012, -0.3627381155847925, -0.37913626058137273, 0.1759022444806968, 0.1512011638807107, 0.2862159118663272, 0.451029264719614, -0.20283651528583257, 0.2525387497878191, -0.007890898770259613, 0.11849310970483795, -0.34821979891761545, 0.042938145968114405, 0.32147888751762843, -0.30783122275968344, 0.4305513193066359, -0.11712836567095275, 0.20376532365645572, -0.21810473114442674, -0.14453705823361573, -0.1484785316020385, 0.2992196995126448, -0.26807680395799627, 0.461445391234126, 0.15293575280684835, -0.016299049212028183, -0.4480912870065128, -0.14313897191494307, -0.14547275434984575, -0.11993757699466756, -0.2321450157398065, 0.1105847130964922, -0.1433578396678119, -0.3318421375608137, -0.4275303598323871, 0.3029714545604998, -0.21242725808484786, 0.15108362907320072, -0.23616820012145745, -0.252054561955418, 0.33485225258981, 0.11060118972188182, -0.09885123464173884, 0.41395709203494113, 0.13054587119552896, -0.015559074464700284, -0.19757180712527056, 0.4772277213731876, 0.05388275209870497, -0.25487744645979626, -0.29614898143614876, -0.19703040524752413, -0.2925827420301832, -0.39014978322125393, -0.347883071754983, -0.16221217865558557, 0.3475337701694703, -0.3957075530755355, -0.1440382682964697, -0.06570774768553911, -0.03972732210222152, -0.21717852647132063, -0.1973693698099933, 0.26641540227333516, 0.2798473893165726, -0.33056995015992685, -0.3995440724210375, -0.29005648887975555, 0.0933248072564673, 0.08666490894012269, 0.2887648012119315, -0.04985900856770742, -0.3847854532313536, -0.4755291458068721, -0.36267574690757953, -0.3170320126070487, 0.10838836790239892, -0.30763875207759694, 0.14926348823243318, -0.045058314885510264, 0.03916556564627216, -0.23390027924840762, 0.46951803723569285, -0.34931927919355144, -0.03456336059185505, 0.2652262507008587, -0.3078461087867097, 0.04034709687685678, 0.06199898906400991, -0.1389992185789236, 0.45296584077210844, 0.49287907517600127, 0.430139726133566, 0.019921879910341, 0.48165489358108604, 0.1852091582147033, -0.09963072230461945, -0.27446845469117354, -0.3076369468580361, -0.4056284757586399, 0.010385169472968081, -0.13339039448940382, -0.2465360595433591, 0.3444267322012925, -0.42096940809895733, 0.38466972047908343, -0.40536138772922303, -0.2083680844655913, 0.46119518146664007, -0.21146000141754037], "biases_output": [-0.13922036459938353]}